<?xml version="1.0"?>
<opencv_storage>
<cascade>
  <stageType>BOOST</stageType>
  <featureType>HAAR</featureType>
  <height>30</height>
  <width>30</width>
  <stageParams>
    <boostType>GAB</boostType>
    <minHitRate>9.9500000476837158e-01</minHitRate>
    <maxFalseAlarm>5.0000000000000000e-01</maxFalseAlarm>
    <weightTrimRate>9.4999999999999996e-01</weightTrimRate>
    <maxDepth>1</maxDepth>
    <maxWeakCount>100</maxWeakCount></stageParams>
  <featureParams>
    <maxCatCount>0</maxCatCount>
    <featSize>1</featSize>
    <mode>BASIC</mode></featureParams>
  <stageNum>34</stageNum>
  <stages>
    <!-- stage 0 -->
    <_>
      <maxWeakCount>4</maxWeakCount>
      <stageThreshold>-5.0696605443954468e-01</stageThreshold>
      <weakClassifiers>
        <_>
          <internalNodes>
            0 -1 62 -2.9435366392135620e-02</internalNodes>
          <leafValues>
            -4.9019607901573181e-01 9.4117647409439087e-01</leafValues></_>
        <_>
          <internalNodes>
            0 -1 119 4.0376177057623863e-03</internalNodes>
          <leafValues>
            -2.9068219661712646e-01 8.6064940690994263e-01</leafValues></_>
        <_>
          <internalNodes>
            0 -1 80 4.6817236579954624e-05</internalNodes>
          <leafValues>
            -4.2712160944938660e-01 8.5551536083221436e-01</leafValues></_>
        <_>
          <internalNodes>
            0 -1 106 1.9727894105017185e-03</internalNodes>
          <leafValues>
            -4.5029777288436890e-01 8.8321667909622192e-01</leafValues></_></weakClassifiers></_>
    <!-- stage 1 -->
    <_>
      <maxWeakCount>4</maxWeakCount>
      <stageThreshold>1.4439068734645844e-01</stageThreshold>
      <weakClassifiers>
        <_>
          <internalNodes>
            0 -1 18 3.2152617350220680e-03</internalNodes>
          <leafValues>
            -6.5714287757873535e-01 7.3809522390365601e-01</leafValues></_>
        <_>
          <internalNodes>
            0 -1 99 1.0123420506715775e-02</internalNodes>
          <leafValues>
            -4.7714275121688843e-01 7.8361201286315918e-01</leafValues></_>
        <_>
          <internalNodes>
            0 -1 1 8.1495498307049274e-05</internalNodes>
          <leafValues>
            5.7135069370269775e-01 -8.2991856336593628e-01</leafValues></_>
        <_>
          <internalNodes>
            0 -1 20 -6.9587409961968660e-04</internalNodes>
          <leafValues>
            8.5549581050872803e-01 -5.5342918634414673e-01</leafValues></_></weakClassifiers></_>
    <!-- stage 2 -->
    <_>
      <maxWeakCount>3</maxWeakCount>
      <stageThreshold>-3.2700758427381516e-02</stageThreshold>
      <weakClassifiers>
        <_>
          <internalNodes>
            0 -1 64 2.2406442090868950e-02</internalNodes>
          <leafValues>
            -2.8813558816909790e-01 9.3333333730697632e-01</leafValues></_>
        <_>
          <internalNodes>
            0 -1 121 -5.1068970933556557e-03</internalNodes>
          <leafValues>
            8.4067767858505249e-01 -3.0795976519584656e-01</leafValues></_>
        <_>
          <internalNodes>
            0 -1 29 -2.0929513993905857e-05</internalNodes>
          <leafValues>
            6.9569045305252075e-01 -5.8524280786514282e-01</leafValues></_></weakClassifiers></_>
    <!-- stage 3 -->
    <_>
      <maxWeakCount>1</maxWeakCount>
      <stageThreshold>5.9595960378646851e-01</stageThreshold>
      <weakClassifiers>
        <_>
          <internalNodes>
            0 -1 16 -8.6623445153236389e-02</internalNodes>
          <leafValues>
            -1. 5.9595960378646851e-01</leafValues></_></weakClassifiers></_>
    <!-- stage 4 -->
    <_>
      <maxWeakCount>3</maxWeakCount>
      <stageThreshold>4.3178230524063110e-02</stageThreshold>
      <weakClassifiers>
        <_>
          <internalNodes>
            0 -1 87 1.3437947630882263e-01</internalNodes>
          <leafValues>
            -2.0000000298023224e-01 7.8125000000000000e-01</leafValues></_>
        <_>
          <internalNodes>
            0 -1 24 -4.1957758367061615e-04</internalNodes>
          <leafValues>
            6.7954295873641968e-01 -4.1777643561363220e-01</leafValues></_>
        <_>
          <internalNodes>
            0 -1 2 5.5318735539913177e-03</internalNodes>
          <leafValues>
            -3.2029533386230469e-01 1.</leafValues></_></weakClassifiers></_>
    <!-- stage 5 -->
    <_>
      <maxWeakCount>4</maxWeakCount>
      <stageThreshold>-3.0820661783218384e-01</stageThreshold>
      <weakClassifiers>
        <_>
          <internalNodes>
            0 -1 70 6.0760639607906342e-02</internalNodes>
          <leafValues>
            -2.9824560880661011e-01 9.0322577953338623e-01</leafValues></_>
        <_>
          <internalNodes>
            0 -1 53 4.8335399478673935e-03</internalNodes>
          <leafValues>
            -3.1874567270278931e-01 8.7709099054336548e-01</leafValues></_>
        <_>
          <internalNodes>
            0 -1 39 2.0833450835198164e-03</internalNodes>
          <leafValues>
            6.9362378120422363e-01 -5.1872587203979492e-01</leafValues></_>
        <_>
          <internalNodes>
            0 -1 92 -3.4988489933311939e-03</internalNodes>
          <leafValues>
            8.9033806324005127e-01 -3.7396091222763062e-01</leafValues></_></weakClassifiers></_>
    <!-- stage 6 -->
    <_>
      <maxWeakCount>5</maxWeakCount>
      <stageThreshold>6.1621580272912979e-02</stageThreshold>
      <weakClassifiers>
        <_>
          <internalNodes>
            0 -1 28 1.0624902322888374e-02</internalNodes>
          <leafValues>
            5.2475249767303467e-01 -7.7777779102325439e-01</leafValues></_>
        <_>
          <internalNodes>
            0 -1 71 6.8478863686323166e-03</internalNodes>
          <leafValues>
            -3.5982927680015564e-01 8.0745714902877808e-01</leafValues></_>
        <_>
          <internalNodes>
            0 -1 114 2.0658558234572411e-02</internalNodes>
          <leafValues>
            -3.3173838257789612e-01 8.1762564182281494e-01</leafValues></_>
        <_>
          <internalNodes>
            0 -1 79 -3.5805056540993974e-05</internalNodes>
          <leafValues>
            6.9748061895370483e-01 -4.2883634567260742e-01</leafValues></_>
        <_>
          <internalNodes>
            0 -1 57 -5.2487221546471119e-03</internalNodes>
          <leafValues>
            -4.6904388070106506e-01 6.6089057922363281e-01</leafValues></_></weakClassifiers></_>
    <!-- stage 7 -->
    <_>
      <maxWeakCount>2</maxWeakCount>
      <stageThreshold>9.3703225255012512e-02</stageThreshold>
      <weakClassifiers>
        <_>
          <internalNodes>
            0 -1 111 -1.4038119843462482e-05</internalNodes>
          <leafValues>
            8.9473682641983032e-01 -1.9354838132858276e-01</leafValues></_>
        <_>
          <internalNodes>
            0 -1 58 -6.4322422258555889e-03</internalNodes>
          <leafValues>
            -8.0103361606597900e-01 5.2335417270660400e-01</leafValues></_></weakClassifiers></_>
    <!-- stage 8 -->
    <_>
      <maxWeakCount>4</maxWeakCount>
      <stageThreshold>-6.1312454938888550e-01</stageThreshold>
      <weakClassifiers>
        <_>
          <internalNodes>
            0 -1 59 -4.2539708316326141e-02</internalNodes>
          <leafValues>
            8.5964912176132202e-01 -1.6129031777381897e-01</leafValues></_>
        <_>
          <internalNodes>
            0 -1 120 -6.2215825892053545e-05</internalNodes>
          <leafValues>
            9.4540339708328247e-01 -2.6777359843254089e-01</leafValues></_>
        <_>
          <internalNodes>
            0 -1 89 4.7587370499968529e-03</internalNodes>
          <leafValues>
            5.9121966361999512e-01 -5.9203094244003296e-01</leafValues></_>
        <_>
          <internalNodes>
            0 -1 10 8.2253915024921298e-04</internalNodes>
          <leafValues>
            4.0797030925750732e-01 -8.3039647340774536e-01</leafValues></_></weakClassifiers></_>
    <!-- stage 9 -->
    <_>
      <maxWeakCount>4</maxWeakCount>
      <stageThreshold>-6.7943388223648071e-01</stageThreshold>
      <weakClassifiers>
        <_>
          <internalNodes>
            0 -1 22 -9.2295347712934017e-04</internalNodes>
          <leafValues>
            -4.5454546809196472e-01 6.2790697813034058e-01</leafValues></_>
        <_>
          <internalNodes>
            0 -1 85 1.2488290849432815e-05</internalNodes>
          <leafValues>
            -3.9849391579627991e-01 7.6886528730392456e-01</leafValues></_>
        <_>
          <internalNodes>
            0 -1 54 -2.7360990643501282e-03</internalNodes>
          <leafValues>
            7.7275872230529785e-01 -3.8862639665603638e-01</leafValues></_>
        <_>
          <internalNodes>
            0 -1 41 -1.1298358913336415e-05</internalNodes>
          <leafValues>
            7.1620231866836548e-01 -5.9915328025817871e-01</leafValues></_></weakClassifiers></_>
    <!-- stage 10 -->
    <_>
      <maxWeakCount>4</maxWeakCount>
      <stageThreshold>-4.0566895157098770e-02</stageThreshold>
      <weakClassifiers>
        <_>
          <internalNodes>
            0 -1 72 -3.8461510092020035e-02</internalNodes>
          <leafValues>
            1. -1.2658228166401386e-02</leafValues></_>
        <_>
          <internalNodes>
            0 -1 112 8.4915111074224114e-05</internalNodes>
          <leafValues>
            -1.8964274227619171e-01 9.3182593584060669e-01</leafValues></_>
        <_>
          <internalNodes>
            0 -1 131 2.9980317776789889e-05</internalNodes>
          <leafValues>
            -3.6558836698532104e-01 7.7076619863510132e-01</leafValues></_>
        <_>
          <internalNodes>
            0 -1 128 -5.8463611640036106e-03</internalNodes>
          <leafValues>
            6.8424028158187866e-01 -4.8533576726913452e-01</leafValues></_></weakClassifiers></_>
    <!-- stage 11 -->
    <_>
      <maxWeakCount>5</maxWeakCount>
      <stageThreshold>-2.9942888021469116e-01</stageThreshold>
      <weakClassifiers>
        <_>
          <internalNodes>
            0 -1 140 -1.4367011608555913e-03</internalNodes>
          <leafValues>
            -1. 5.0476193428039551e-01</leafValues></_>
        <_>
          <internalNodes>
            0 -1 110 2.1743415854871273e-03</internalNodes>
          <leafValues>
            -3.4180611371994019e-01 1.</leafValues></_>
        <_>
          <internalNodes>
            0 -1 113 -1.2630945071578026e-02</internalNodes>
          <leafValues>
            8.6692482233047485e-01 -3.0775219202041626e-01</leafValues></_>
        <_>
          <internalNodes>
            0 -1 90 -9.2451879754662514e-04</internalNodes>
          <leafValues>
            7.0929008722305298e-01 -4.4633325934410095e-01</leafValues></_>
        <_>
          <internalNodes>
            0 -1 21 -2.3565339506603777e-04</internalNodes>
          <leafValues>
            -8.8297623395919800e-01 4.7485831379890442e-01</leafValues></_></weakClassifiers></_>
    <!-- stage 12 -->
    <_>
      <maxWeakCount>5</maxWeakCount>
      <stageThreshold>-1.1003777384757996e-01</stageThreshold>
      <weakClassifiers>
        <_>
          <internalNodes>
            0 -1 135 -2.5102361105382442e-03</internalNodes>
          <leafValues>
            8.2142859697341919e-01 -1.1111111193895340e-01</leafValues></_>
        <_>
          <internalNodes>
            0 -1 115 -1.4265762729337439e-05</internalNodes>
          <leafValues>
            7.9098623991012573e-01 -2.5835320353507996e-01</leafValues></_>
        <_>
          <internalNodes>
            0 -1 45 3.2040956430137157e-03</internalNodes>
          <leafValues>
            4.6141320466995239e-01 -6.2705790996551514e-01</leafValues></_>
        <_>
          <internalNodes>
            0 -1 15 -3.2387056853622198e-04</internalNodes>
          <leafValues>
            7.5281256437301636e-01 -4.7713631391525269e-01</leafValues></_>
        <_>
          <internalNodes>
            0 -1 46 -7.0378519012592733e-07</internalNodes>
          <leafValues>
            -6.5739005804061890e-01 5.3243148326873779e-01</leafValues></_></weakClassifiers></_>
    <!-- stage 13 -->
    <_>
      <maxWeakCount>5</maxWeakCount>
      <stageThreshold>2.3121877014636993e-01</stageThreshold>
      <weakClassifiers>
        <_>
          <internalNodes>
            0 -1 53 6.8258149549365044e-03</internalNodes>
          <leafValues>
            -1.7241379618644714e-01 8.0327868461608887e-01</leafValues></_>
        <_>
          <internalNodes>
            0 -1 130 2.2026943042874336e-03</internalNodes>
          <leafValues>
            -3.8557621836662292e-01 6.3930028676986694e-01</leafValues></_>
        <_>
          <internalNodes>
            0 -1 104 -1.7890366725623608e-03</internalNodes>
          <leafValues>
            7.2764354944229126e-01 -3.5198545455932617e-01</leafValues></_>
        <_>
          <internalNodes>
            0 -1 67 5.2631488069891930e-03</internalNodes>
          <leafValues>
            -4.8670724034309387e-01 7.4683350324630737e-01</leafValues></_>
        <_>
          <internalNodes>
            0 -1 108 -6.1590922996401787e-05</internalNodes>
          <leafValues>
            7.8263825178146362e-01 -3.7266746163368225e-01</leafValues></_></weakClassifiers></_>
    <!-- stage 14 -->
    <_>
      <maxWeakCount>5</maxWeakCount>
      <stageThreshold>3.3004379272460938e-01</stageThreshold>
      <weakClassifiers>
        <_>
          <internalNodes>
            0 -1 43 1.2388109462335706e-04</internalNodes>
          <leafValues>
            -1.4285714924335480e-01 8.5714286565780640e-01</leafValues></_>
        <_>
          <internalNodes>
            0 -1 86 2.5691767223179340e-04</internalNodes>
          <leafValues>
            -2.6112550497055054e-01 9.4367629289627075e-01</leafValues></_>
        <_>
          <internalNodes>
            0 -1 0 1.6560694202780724e-03</internalNodes>
          <leafValues>
            4.6561378240585327e-01 -6.9113039970397949e-01</leafValues></_>
        <_>
          <internalNodes>
            0 -1 117 7.2381431236863136e-03</internalNodes>
          <leafValues>
            -3.9051705598831177e-01 9.5651078224182129e-01</leafValues></_>
        <_>
          <internalNodes>
            0 -1 126 2.2596717826672830e-05</internalNodes>
          <leafValues>
            -3.4107029438018799e-01 9.7052443027496338e-01</leafValues></_></weakClassifiers></_>
    <!-- stage 15 -->
    <_>
      <maxWeakCount>3</maxWeakCount>
      <stageThreshold>5.8158908039331436e-02</stageThreshold>
      <weakClassifiers>
        <_>
          <internalNodes>
            0 -1 101 -1.9204900600016117e-03</internalNodes>
          <leafValues>
            6.6666668653488159e-01 -3.1707316637039185e-01</leafValues></_>
        <_>
          <internalNodes>
            0 -1 74 1.2139663340349216e-05</internalNodes>
          <leafValues>
            -3.3986604213714600e-01 8.3248788118362427e-01</leafValues></_>
        <_>
          <internalNodes>
            0 -1 132 -6.1076215934008360e-04</internalNodes>
          <leafValues>
            1. -2.6864171028137207e-01</leafValues></_></weakClassifiers></_>
    <!-- stage 16 -->
    <_>
      <maxWeakCount>5</maxWeakCount>
      <stageThreshold>2.8783580660820007e-01</stageThreshold>
      <weakClassifiers>
        <_>
          <internalNodes>
            0 -1 137 7.2561070555821061e-04</internalNodes>
          <leafValues>
            7.8125000000000000e-01 -2.0000000298023224e-01</leafValues></_>
        <_>
          <internalNodes>
            0 -1 82 1.8015316454693675e-03</internalNodes>
          <leafValues>
            4.9787658452987671e-01 -7.2578811645507813e-01</leafValues></_>
        <_>
          <internalNodes>
            0 -1 77 1.0043803602457047e-02</internalNodes>
          <leafValues>
            -3.4528908133506775e-01 9.2140096426010132e-01</leafValues></_>
        <_>
          <internalNodes>
            0 -1 19 4.5414857566356659e-02</internalNodes>
          <leafValues>
            -3.2815700769424438e-01 9.3634837865829468e-01</leafValues></_>
        <_>
          <internalNodes>
            0 -1 25 7.5930873863399029e-03</internalNodes>
          <leafValues>
            -3.1784468889236450e-01 9.1730147600173950e-01</leafValues></_></weakClassifiers></_>
    <!-- stage 17 -->
    <_>
      <maxWeakCount>4</maxWeakCount>
      <stageThreshold>2.1475824713706970e-01</stageThreshold>
      <weakClassifiers>
        <_>
          <internalNodes>
            0 -1 125 -2.8323293663561344e-03</internalNodes>
          <leafValues>
            -4.2105263471603394e-01 6.7901235818862915e-01</leafValues></_>
        <_>
          <internalNodes>
            0 -1 136 3.5794875584542751e-03</internalNodes>
          <leafValues>
            5.4535299539566040e-01 -6.4174324274063110e-01</leafValues></_>
        <_>
          <internalNodes>
            0 -1 133 -1.1298358913336415e-05</internalNodes>
          <leafValues>
            7.0667093992233276e-01 -5.3420311212539673e-01</leafValues></_>
        <_>
          <internalNodes>
            0 -1 134 -4.0199775248765945e-03</internalNodes>
          <leafValues>
            7.1707421541213989e-01 -4.7540399432182312e-01</leafValues></_></weakClassifiers></_>
    <!-- stage 18 -->
    <_>
      <maxWeakCount>5</maxWeakCount>
      <stageThreshold>-3.5313549637794495e-01</stageThreshold>
      <weakClassifiers>
        <_>
          <internalNodes>
            0 -1 127 1.2139663340349216e-05</internalNodes>
          <leafValues>
            -3.9999999105930328e-02 9.5454543828964233e-01</leafValues></_>
        <_>
          <internalNodes>
            0 -1 95 1.3367088286031503e-05</internalNodes>
          <leafValues>
            -2.2385175526142120e-01 8.2700562477111816e-01</leafValues></_>
        <_>
          <internalNodes>
            0 -1 47 1.2139663340349216e-05</internalNodes>
          <leafValues>
            -3.5406506061553955e-01 7.5350481271743774e-01</leafValues></_>
        <_>
          <internalNodes>
            0 -1 107 3.2516589271835983e-04</internalNodes>
          <leafValues>
            -4.0236663818359375e-01 7.7834498882293701e-01</leafValues></_>
        <_>
          <internalNodes>
            0 -1 78 -8.2446837041061372e-05</internalNodes>
          <leafValues>
            7.0093435049057007e-01 -4.4042190909385681e-01</leafValues></_></weakClassifiers></_>
    <!-- stage 19 -->
    <_>
      <maxWeakCount>4</maxWeakCount>
      <stageThreshold>-1.1888638138771057e-01</stageThreshold>
      <weakClassifiers>
        <_>
          <internalNodes>
            0 -1 73 -1.1360612006683368e-05</internalNodes>
          <leafValues>
            9.0909093618392944e-01 -1.3333333656191826e-02</leafValues></_>
        <_>
          <internalNodes>
            0 -1 109 5.9437712479848415e-05</internalNodes>
          <leafValues>
            -2.6321613788604736e-01 8.2758671045303345e-01</leafValues></_>
        <_>
          <internalNodes>
            0 -1 100 5.7772372383624315e-04</internalNodes>
          <leafValues>
            -3.4296670556068420e-01 8.2680159807205200e-01</leafValues></_>
        <_>
          <internalNodes>
            0 -1 112 1.3165446034690831e-05</internalNodes>
          <leafValues>
            -4.2179444432258606e-01 6.9465118646621704e-01</leafValues></_></weakClassifiers></_>
    <!-- stage 20 -->
    <_>
      <maxWeakCount>6</maxWeakCount>
      <stageThreshold>-3.6037164926528931e-01</stageThreshold>
      <weakClassifiers>
        <_>
          <internalNodes>
            0 -1 60 -1.1255005374550819e-02</internalNodes>
          <leafValues>
            6.5432101488113403e-01 -3.6842104792594910e-01</leafValues></_>
        <_>
          <internalNodes>
            0 -1 51 -2.8077487513655797e-05</internalNodes>
          <leafValues>
            6.9287884235382080e-01 -3.6861687898635864e-01</leafValues></_>
        <_>
          <internalNodes>
            0 -1 98 7.0136820431798697e-04</internalNodes>
          <leafValues>
            -2.3367558419704437e-01 9.0507954359054565e-01</leafValues></_>
        <_>
          <internalNodes>
            0 -1 139 3.4438507282175124e-04</internalNodes>
          <leafValues>
            4.2386519908905029e-01 -7.7514773607254028e-01</leafValues></_>
        <_>
          <internalNodes>
            0 -1 40 1.9222173839807510e-02</internalNodes>
          <leafValues>
            -5.2909821271896362e-01 6.4453029632568359e-01</leafValues></_>
        <_>
          <internalNodes>
            0 -1 49 1.4991690113674849e-04</internalNodes>
          <leafValues>
            -3.4592086076736450e-01 9.1477918624877930e-01</leafValues></_></weakClassifiers></_>
    <!-- stage 21 -->
    <_>
      <maxWeakCount>4</maxWeakCount>
      <stageThreshold>1.3279534876346588e-01</stageThreshold>
      <weakClassifiers>
        <_>
          <internalNodes>
            0 -1 9 7.1632501203566790e-04</internalNodes>
          <leafValues>
            5.9550559520721436e-01 -4.6666666865348816e-01</leafValues></_>
        <_>
          <internalNodes>
            0 -1 84 3.8542146794497967e-03</internalNodes>
          <leafValues>
            4.6362736821174622e-01 -6.3719016313552856e-01</leafValues></_>
        <_>
          <internalNodes>
            0 -1 37 -1.4297565940069035e-05</internalNodes>
          <leafValues>
            7.3756456375122070e-01 -4.0330362319946289e-01</leafValues></_>
        <_>
          <internalNodes>
            0 -1 36 -1.8615557564771734e-05</internalNodes>
          <leafValues>
            6.4301419258117676e-01 -5.2303403615951538e-01</leafValues></_></weakClassifiers></_>
    <!-- stage 22 -->
    <_>
      <maxWeakCount>4</maxWeakCount>
      <stageThreshold>-4.1640263795852661e-01</stageThreshold>
      <weakClassifiers>
        <_>
          <internalNodes>
            0 -1 138 -5.8053433895111084e-04</internalNodes>
          <leafValues>
            -2.5000000000000000e-01 7.1830987930297852e-01</leafValues></_>
        <_>
          <internalNodes>
            0 -1 61 5.7640145532786846e-03</internalNodes>
          <leafValues>
            5.6749850511550903e-01 -5.6820827722549438e-01</leafValues></_>
        <_>
          <internalNodes>
            0 -1 83 -3.7859339499846101e-04</internalNodes>
          <leafValues>
            7.9716765880584717e-01 -3.7952083349227905e-01</leafValues></_>
        <_>
          <internalNodes>
            0 -1 68 5.3892889991402626e-03</internalNodes>
          <leafValues>
            -3.5438030958175659e-01 8.4561669826507568e-01</leafValues></_></weakClassifiers></_>
    <!-- stage 23 -->
    <_>
      <maxWeakCount>5</maxWeakCount>
      <stageThreshold>-6.5057104825973511e-01</stageThreshold>
      <weakClassifiers>
        <_>
          <internalNodes>
            0 -1 5 -1.5950232045724988e-04</internalNodes>
          <leafValues>
            -4.4827586412429810e-01 5.7777780294418335e-01</leafValues></_>
        <_>
          <internalNodes>
            0 -1 11 1.5113083645701408e-04</internalNodes>
          <leafValues>
            3.8682204484939575e-01 -7.3623365163803101e-01</leafValues></_>
        <_>
          <internalNodes>
            0 -1 91 -8.1010191934183240e-05</internalNodes>
          <leafValues>
            -6.1956965923309326e-01 4.6649602055549622e-01</leafValues></_>
        <_>
          <internalNodes>
            0 -1 123 6.5144100517500192e-05</internalNodes>
          <leafValues>
            4.9701273441314697e-01 -6.4726001024246216e-01</leafValues></_>
        <_>
          <internalNodes>
            0 -1 93 2.0572679932229221e-04</internalNodes>
          <leafValues>
            -4.0835326910018921e-01 8.2661873102188110e-01</leafValues></_></weakClassifiers></_>
    <!-- stage 24 -->
    <_>
      <maxWeakCount>5</maxWeakCount>
      <stageThreshold>2.0521730184555054e-01</stageThreshold>
      <weakClassifiers>
        <_>
          <internalNodes>
            0 -1 52 8.2586016505956650e-03</internalNodes>
          <leafValues>
            -5.5555555969476700e-02 9.1489362716674805e-01</leafValues></_>
        <_>
          <internalNodes>
            0 -1 27 -4.0692677721381187e-03</internalNodes>
          <leafValues>
            9.3510609865188599e-01 -2.1647819876670837e-01</leafValues></_>
        <_>
          <internalNodes>
            0 -1 103 -1.9855974242091179e-03</internalNodes>
          <leafValues>
            6.8277615308761597e-01 -4.0470710396766663e-01</leafValues></_>
        <_>
          <internalNodes>
            0 -1 8 1.7800887871999294e-04</internalNodes>
          <leafValues>
            5.2155286073684692e-01 -7.6963275671005249e-01</leafValues></_>
        <_>
          <internalNodes>
            0 -1 76 -2.8924227808602154e-04</internalNodes>
          <leafValues>
            8.5635071992874146e-01 -4.0634152293205261e-01</leafValues></_></weakClassifiers></_>
    <!-- stage 25 -->
    <_>
      <maxWeakCount>5</maxWeakCount>
      <stageThreshold>-2.3450472950935364e-01</stageThreshold>
      <weakClassifiers>
        <_>
          <internalNodes>
            0 -1 34 3.7378191947937012e-02</internalNodes>
          <leafValues>
            -5.4054055362939835e-02 9.5555555820465088e-01</leafValues></_>
        <_>
          <internalNodes>
            0 -1 38 -1.7978551331907511e-03</internalNodes>
          <leafValues>
            -6.7816829681396484e-01 4.6850371360778809e-01</leafValues></_>
        <_>
          <internalNodes>
            0 -1 23 -4.1249365312978625e-04</internalNodes>
          <leafValues>
            -7.0959973335266113e-01 4.0480092167854309e-01</leafValues></_>
        <_>
          <internalNodes>
            0 -1 88 4.5418171212077141e-03</internalNodes>
          <leafValues>
            -3.6573529243469238e-01 8.8716435432434082e-01</leafValues></_>
        <_>
          <internalNodes>
            0 -1 141 -5.2474881522357464e-04</internalNodes>
          <leafValues>
            -5.5095762014389038e-01 5.8220613002777100e-01</leafValues></_></weakClassifiers></_>
    <!-- stage 26 -->
    <_>
      <maxWeakCount>4</maxWeakCount>
      <stageThreshold>-9.6366470679640770e-03</stageThreshold>
      <weakClassifiers>
        <_>
          <internalNodes>
            0 -1 63 2.1328753791749477e-03</internalNodes>
          <leafValues>
            -2.0689655840396881e-01 8.3606559038162231e-01</leafValues></_>
        <_>
          <internalNodes>
            0 -1 65 -1.2774578863172792e-05</internalNodes>
          <leafValues>
            9.4021981954574585e-01 -1.9914624094963074e-01</leafValues></_>
        <_>
          <internalNodes>
            0 -1 30 1.1735132429748774e-03</internalNodes>
          <leafValues>
            -3.2491037249565125e-01 7.7678221464157104e-01</leafValues></_>
        <_>
          <internalNodes>
            0 -1 32 1.3802365865558386e-03</internalNodes>
          <leafValues>
            -3.2164558768272400e-01 9.4475305080413818e-01</leafValues></_></weakClassifiers></_>
    <!-- stage 27 -->
    <_>
      <maxWeakCount>6</maxWeakCount>
      <stageThreshold>-2.8271418809890747e-01</stageThreshold>
      <weakClassifiers>
        <_>
          <internalNodes>
            0 -1 26 -5.4257679730653763e-02</internalNodes>
          <leafValues>
            -6.8421053886413574e-01 5.1999998092651367e-01</leafValues></_>
        <_>
          <internalNodes>
            0 -1 35 -1.0344902984797955e-02</internalNodes>
          <leafValues>
            6.2223410606384277e-01 -3.7383019924163818e-01</leafValues></_>
        <_>
          <internalNodes>
            0 -1 48 2.0705390721559525e-02</internalNodes>
          <leafValues>
            3.2939210534095764e-01 -7.9039078950881958e-01</leafValues></_>
        <_>
          <internalNodes>
            0 -1 116 -7.0708731072954834e-05</internalNodes>
          <leafValues>
            -4.6646270155906677e-01 7.1182078123092651e-01</leafValues></_>
        <_>
          <internalNodes>
            0 -1 75 1.6481562852277420e-05</internalNodes>
          <leafValues>
            -5.1565951108932495e-01 6.3206213712692261e-01</leafValues></_>
        <_>
          <internalNodes>
            0 -1 13 -1.1368974082870409e-04</internalNodes>
          <leafValues>
            -7.1572929620742798e-01 5.2479034662246704e-01</leafValues></_></weakClassifiers></_>
    <!-- stage 28 -->
    <_>
      <maxWeakCount>5</maxWeakCount>
      <stageThreshold>2.8358647227287292e-01</stageThreshold>
      <weakClassifiers>
        <_>
          <internalNodes>
            0 -1 7 8.3807529881596565e-04</internalNodes>
          <leafValues>
            6.0919541120529175e-01 -4.3750000000000000e-01</leafValues></_>
        <_>
          <internalNodes>
            0 -1 31 -1.3036357238888741e-02</internalNodes>
          <leafValues>
            8.1031471490859985e-01 -3.2024145126342773e-01</leafValues></_>
        <_>
          <internalNodes>
            0 -1 133 -1.4784606173634529e-04</internalNodes>
          <leafValues>
            7.8695219755172729e-01 -3.5056546330451965e-01</leafValues></_>
        <_>
          <internalNodes>
            0 -1 94 6.0030883178114891e-03</internalNodes>
          <leafValues>
            -3.3075997233390808e-01 9.0009015798568726e-01</leafValues></_>
        <_>
          <internalNodes>
            0 -1 6 -1.2774578863172792e-05</internalNodes>
          <leafValues>
            7.4206501245498657e-01 -4.5459821820259094e-01</leafValues></_></weakClassifiers></_>
    <!-- stage 29 -->
    <_>
      <maxWeakCount>7</maxWeakCount>
      <stageThreshold>-1.9611810147762299e-01</stageThreshold>
      <weakClassifiers>
        <_>
          <internalNodes>
            0 -1 14 1.9842953770421445e-04</internalNodes>
          <leafValues>
            5.1999998092651367e-01 -6.8421053886413574e-01</leafValues></_>
        <_>
          <internalNodes>
            0 -1 97 -1.7413131718058139e-04</internalNodes>
          <leafValues>
            -5.3277271986007690e-01 4.7229400277137756e-01</leafValues></_>
        <_>
          <internalNodes>
            0 -1 50 -5.9174364432692528e-03</internalNodes>
          <leafValues>
            6.0280424356460571e-01 -5.4670238494873047e-01</leafValues></_>
        <_>
          <internalNodes>
            0 -1 3 1.6238973475992680e-03</internalNodes>
          <leafValues>
            -4.1823029518127441e-01 8.9329481124877930e-01</leafValues></_>
        <_>
          <internalNodes>
            0 -1 69 -1.2386993039399385e-03</internalNodes>
          <leafValues>
            -4.7261112928390503e-01 6.9055730104446411e-01</leafValues></_>
        <_>
          <internalNodes>
            0 -1 118 -5.1276246085762978e-04</internalNodes>
          <leafValues>
            8.4469342231750488e-01 -3.4048491716384888e-01</leafValues></_>
        <_>
          <internalNodes>
            0 -1 17 -2.9770675610052422e-05</internalNodes>
          <leafValues>
            5.8961659669876099e-01 -5.0599324703216553e-01</leafValues></_></weakClassifiers></_>
    <!-- stage 30 -->
    <_>
      <maxWeakCount>4</maxWeakCount>
      <stageThreshold>-3.4822195768356323e-01</stageThreshold>
      <weakClassifiers>
        <_>
          <internalNodes>
            0 -1 55 3.8749759551137686e-04</internalNodes>
          <leafValues>
            6.1797749996185303e-01 -5.3333336114883423e-01</leafValues></_>
        <_>
          <internalNodes>
            0 -1 105 3.5507850348949432e-02</internalNodes>
          <leafValues>
            -3.2836791872978210e-01 8.1888633966445923e-01</leafValues></_>
        <_>
          <internalNodes>
            0 -1 56 -5.3759664297103882e-03</internalNodes>
          <leafValues>
            9.6241319179534912e-01 -2.8146287798881531e-01</leafValues></_>
        <_>
          <internalNodes>
            0 -1 124 9.1518799308687449e-04</internalNodes>
          <leafValues>
            -3.5636872053146362e-01 8.5819035768508911e-01</leafValues></_></weakClassifiers></_>
    <!-- stage 31 -->
    <_>
      <maxWeakCount>4</maxWeakCount>
      <stageThreshold>-1.0972130112349987e-02</stageThreshold>
      <weakClassifiers>
        <_>
          <internalNodes>
            0 -1 81 1.9555911421775818e-02</internalNodes>
          <leafValues>
            5.0476193428039551e-01 -1.</leafValues></_>
        <_>
          <internalNodes>
            0 -1 12 -1.6411147080361843e-03</internalNodes>
          <leafValues>
            -5.4857015609741211e-01 5.8558851480484009e-01</leafValues></_>
        <_>
          <internalNodes>
            0 -1 4 -2.5665797293186188e-03</internalNodes>
          <leafValues>
            7.3350310325622559e-01 -4.8739963769912720e-01</leafValues></_>
        <_>
          <internalNodes>
            0 -1 33 1.3647621963173151e-03</internalNodes>
          <leafValues>
            5.2023577690124512e-01 -5.8627742528915405e-01</leafValues></_></weakClassifiers></_>
    <!-- stage 32 -->
    <_>
      <maxWeakCount>4</maxWeakCount>
      <stageThreshold>-8.7198108434677124e-01</stageThreshold>
      <weakClassifiers>
        <_>
          <internalNodes>
            0 -1 11 -4.0440354496240616e-04</internalNodes>
          <leafValues>
            -3.8888889551162720e-01 6.3855421543121338e-01</leafValues></_>
        <_>
          <internalNodes>
            0 -1 42 -3.9806429296731949e-02</internalNodes>
          <leafValues>
            -5.8143693208694458e-01 4.6451002359390259e-01</leafValues></_>
        <_>
          <internalNodes>
            0 -1 66 -1.2159895959484857e-05</internalNodes>
          <leafValues>
            6.9404989480972290e-01 -4.1385313868522644e-01</leafValues></_>
        <_>
          <internalNodes>
            0 -1 96 4.0537747554481030e-04</internalNodes>
          <leafValues>
            4.7737088799476624e-01 -5.9570515155792236e-01</leafValues></_></weakClassifiers></_>
    <!-- stage 33 -->
    <_>
      <maxWeakCount>4</maxWeakCount>
      <stageThreshold>1.0138437151908875e-01</stageThreshold>
      <weakClassifiers>
        <_>
          <internalNodes>
            0 -1 102 3.8477801717817783e-04</internalNodes>
          <leafValues>
            6.2352943420410156e-01 -4.1176471114158630e-01</leafValues></_>
        <_>
          <internalNodes>
            0 -1 122 -1.3373397450777702e-05</internalNodes>
          <leafValues>
            6.1817085742950439e-01 -3.8449847698211670e-01</leafValues></_>
        <_>
          <internalNodes>
            0 -1 44 3.7886400241404772e-04</internalNodes>
          <leafValues>
            3.5586065053939819e-01 -7.7010941505432129e-01</leafValues></_>
        <_>
          <internalNodes>
            0 -1 129 5.7275529252365232e-04</internalNodes>
          <leafValues>
            -3.7020650506019592e-01 8.6015141010284424e-01</leafValues></_></weakClassifiers></_></stages>
  <features>
    <_>
      <rects>
        <_>
          0 0 1 18 -1.</_>
        <_>
          0 6 1 6 3.</_></rects>
      <tilted>0</tilted></_>
    <_>
      <rects>
        <_>
          0 0 2 2 -1.</_>
        <_>
          0 1 2 1 2.</_></rects>
      <tilted>0</tilted></_>
    <_>
      <rects>
        <_>
          0 0 6 10 -1.</_>
        <_>
          0 0 3 5 2.</_>
        <_>
          3 5 3 5 2.</_></rects>
      <tilted>0</tilted></_>
    <_>
      <rects>
        <_>
          0 0 29 6 -1.</_>
        <_>
          0 2 29 2 3.</_></rects>
      <tilted>0</tilted></_>
    <_>
      <rects>
        <_>
          0 1 30 2 -1.</_>
        <_>
          15 1 15 2 2.</_></rects>
      <tilted>0</tilted></_>
    <_>
      <rects>
        <_>
          0 2 1 3 -1.</_>
        <_>
          0 3 1 1 3.</_></rects>
      <tilted>0</tilted></_>
    <_>
      <rects>
        <_>
          0 2 2 3 -1.</_>
        <_>
          1 2 1 3 2.</_></rects>
      <tilted>0</tilted></_>
    <_>
      <rects>
        <_>
          0 6 1 12 -1.</_>
        <_>
          0 10 1 4 3.</_></rects>
      <tilted>0</tilted></_>
    <_>
      <rects>
        <_>
          0 6 4 3 -1.</_>
        <_>
          0 7 4 1 3.</_></rects>
      <tilted>0</tilted></_>
    <_>
      <rects>
        <_>
          0 8 2 9 -1.</_>
        <_>
          0 11 2 3 3.</_></rects>
      <tilted>0</tilted></_>
    <_>
      <rects>
        <_>
          0 9 1 12 -1.</_>
        <_>
          0 13 1 4 3.</_></rects>
      <tilted>0</tilted></_>
    <_>
      <rects>
        <_>
          0 11 1 4 -1.</_>
        <_>
          0 13 1 2 2.</_></rects>
      <tilted>0</tilted></_>
    <_>
      <rects>
        <_>
          0 14 1 12 -1.</_>
        <_>
          0 20 1 6 2.</_></rects>
      <tilted>0</tilted></_>
    <_>
      <rects>
        <_>
          0 14 2 3 -1.</_>
        <_>
          0 15 2 1 3.</_></rects>
      <tilted>0</tilted></_>
    <_>
      <rects>
        <_>
          0 15 1 2 -1.</_>
        <_>
          0 16 1 1 2.</_></rects>
      <tilted>0</tilted></_>
    <_>
      <rects>
        <_>
          0 16 3 14 -1.</_>
        <_>
          1 16 1 14 3.</_></rects>
      <tilted>0</tilted></_>
    <_>
      <rects>
        <_>
          0 16 30 14 -1.</_>
        <_>
          15 16 15 14 2.</_></rects>
      <tilted>0</tilted></_>
    <_>
      <rects>
        <_>
          0 17 2 6 -1.</_>
        <_>
          0 17 1 3 2.</_>
        <_>
          1 20 1 3 2.</_></rects>
      <tilted>0</tilted></_>
    <_>
      <rects>
        <_>
          0 18 30 4 -1.</_>
        <_>
          15 18 15 4 2.</_></rects>
      <tilted>0</tilted></_>
    <_>
      <rects>
        <_>
          0 18 25 12 -1.</_>
        <_>
          0 22 25 4 3.</_></rects>
      <tilted>0</tilted></_>
    <_>
      <rects>
        <_>
          0 19 9 6 -1.</_>
        <_>
          0 21 9 2 3.</_></rects>
      <tilted>0</tilted></_>
    <_>
      <rects>
        <_>
          0 20 1 2 -1.</_>
        <_>
          0 21 1 1 2.</_></rects>
      <tilted>0</tilted></_>
    <_>
      <rects>
        <_>
          0 20 2 4 -1.</_>
        <_>
          0 22 2 2 2.</_></rects>
      <tilted>0</tilted></_>
    <_>
      <rects>
        <_>
          0 28 3 2 -1.</_>
        <_>
          0 29 3 1 2.</_></rects>
      <tilted>0</tilted></_>
    <_>
      <rects>
        <_>
          1 1 15 4 -1.</_>
        <_>
          6 1 5 4 3.</_></rects>
      <tilted>0</tilted></_>
    <_>
      <rects>
        <_>
          1 4 8 8 -1.</_>
        <_>
          1 4 4 4 2.</_>
        <_>
          5 8 4 4 2.</_></rects>
      <tilted>0</tilted></_>
    <_>
      <rects>
        <_>
          1 6 18 22 -1.</_>
        <_>
          1 6 9 11 2.</_>
        <_>
          10 17 9 11 2.</_></rects>
      <tilted>0</tilted></_>
    <_>
      <rects>
        <_>
          1 12 24 1 -1.</_>
        <_>
          9 12 8 1 3.</_></rects>
      <tilted>0</tilted></_>
    <_>
      <rects>
        <_>
          1 15 6 12 -1.</_>
        <_>
          1 21 6 6 2.</_></rects>
      <tilted>0</tilted></_>
    <_>
      <rects>
        <_>
          2 0 12 1 -1.</_>
        <_>
          8 0 6 1 2.</_></rects>
      <tilted>0</tilted></_>
    <_>
      <rects>
        <_>
          2 3 17 3 -1.</_>
        <_>
          2 4 17 1 3.</_></rects>
      <tilted>0</tilted></_>
    <_>
      <rects>
        <_>
          2 7 12 10 -1.</_>
        <_>
          6 7 4 10 3.</_></rects>
      <tilted>0</tilted></_>
    <_>
      <rects>
        <_>
          2 8 14 2 -1.</_>
        <_>
          2 8 7 1 2.</_>
        <_>
          9 9 7 1 2.</_></rects>
      <tilted>0</tilted></_>
    <_>
      <rects>
        <_>
          2 11 24 2 -1.</_>
        <_>
          2 11 12 1 2.</_>
        <_>
          14 12 12 1 2.</_></rects>
      <tilted>0</tilted></_>
    <_>
      <rects>
        <_>
          3 0 12 20 -1.</_>
        <_>
          3 0 6 10 2.</_>
        <_>
          9 10 6 10 2.</_></rects>
      <tilted>0</tilted></_>
    <_>
      <rects>
        <_>
          3 3 9 17 -1.</_>
        <_>
          6 3 3 17 3.</_></rects>
      <tilted>0</tilted></_>
    <_>
      <rects>
        <_>
          3 6 3 8 -1.</_>
        <_>
          4 6 1 8 3.</_></rects>
      <tilted>0</tilted></_>
    <_>
      <rects>
        <_>
          3 7 1 3 -1.</_>
        <_>
          3 8 1 1 3.</_></rects>
      <tilted>0</tilted></_>
    <_>
      <rects>
        <_>
          3 11 4 6 -1.</_>
        <_>
          3 13 4 2 3.</_></rects>
      <tilted>0</tilted></_>
    <_>
      <rects>
        <_>
          4 0 20 1 -1.</_>
        <_>
          14 0 10 1 2.</_></rects>
      <tilted>0</tilted></_>
    <_>
      <rects>
        <_>
          4 9 11 21 -1.</_>
        <_>
          4 16 11 7 3.</_></rects>
      <tilted>0</tilted></_>
    <_>
      <rects>
        <_>
          4 28 4 2 -1.</_>
        <_>
          4 28 2 1 2.</_>
        <_>
          6 29 2 1 2.</_></rects>
      <tilted>0</tilted></_>
    <_>
      <rects>
        <_>
          5 1 24 28 -1.</_>
        <_>
          5 1 12 14 2.</_>
        <_>
          17 15 12 14 2.</_></rects>
      <tilted>0</tilted></_>
    <_>
      <rects>
        <_>
          5 9 5 2 -1.</_>
        <_>
          5 10 5 1 2.</_></rects>
      <tilted>0</tilted></_>
    <_>
      <rects>
        <_>
          5 15 4 2 -1.</_>
        <_>
          5 16 4 1 2.</_></rects>
      <tilted>0</tilted></_>
    <_>
      <rects>
        <_>
          5 18 10 12 -1.</_>
        <_>
          5 18 5 6 2.</_>
        <_>
          10 24 5 6 2.</_></rects>
      <tilted>0</tilted></_>
    <_>
      <rects>
        <_>
          6 2 8 8 -1.</_>
        <_>
          6 6 8 4 2.</_></rects>
      <tilted>0</tilted></_>
    <_>
      <rects>
        <_>
          6 9 2 2 -1.</_>
        <_>
          6 9 1 1 2.</_>
        <_>
          7 10 1 1 2.</_></rects>
      <tilted>0</tilted></_>
    <_>
      <rects>
        <_>
          6 10 20 6 -1.</_>
        <_>
          6 10 10 3 2.</_>
        <_>
          16 13 10 3 2.</_></rects>
      <tilted>0</tilted></_>
    <_>
      <rects>
        <_>
          6 11 2 4 -1.</_>
        <_>
          6 11 1 2 2.</_>
        <_>
          7 13 1 2 2.</_></rects>
      <tilted>0</tilted></_>
    <_>
      <rects>
        <_>
          6 22 7 8 -1.</_>
        <_>
          6 26 7 4 2.</_></rects>
      <tilted>0</tilted></_>
    <_>
      <rects>
        <_>
          6 23 14 2 -1.</_>
        <_>
          6 23 7 1 2.</_>
        <_>
          13 24 7 1 2.</_></rects>
      <tilted>0</tilted></_>
    <_>
      <rects>
        <_>
          6 23 14 6 -1.</_>
        <_>
          6 25 14 2 3.</_></rects>
      <tilted>0</tilted></_>
    <_>
      <rects>
        <_>
          6 23 22 6 -1.</_>
        <_>
          6 25 22 2 3.</_></rects>
      <tilted>0</tilted></_>
    <_>
      <rects>
        <_>
          6 26 10 4 -1.</_>
        <_>
          6 26 5 2 2.</_>
        <_>
          11 28 5 2 2.</_></rects>
      <tilted>0</tilted></_>
    <_>
      <rects>
        <_>
          7 0 4 1 -1.</_>
        <_>
          9 0 2 1 2.</_></rects>
      <tilted>0</tilted></_>
    <_>
      <rects>
        <_>
          7 0 9 6 -1.</_>
        <_>
          7 2 9 2 3.</_></rects>
      <tilted>0</tilted></_>
    <_>
      <rects>
        <_>
          7 5 6 18 -1.</_>
        <_>
          7 14 6 9 2.</_></rects>
      <tilted>0</tilted></_>
    <_>
      <rects>
        <_>
          7 22 9 4 -1.</_>
        <_>
          10 22 3 4 3.</_></rects>
      <tilted>0</tilted></_>
    <_>
      <rects>
        <_>
          7 22 20 8 -1.</_>
        <_>
          7 26 20 4 2.</_></rects>
      <tilted>0</tilted></_>
    <_>
      <rects>
        <_>
          8 18 9 12 -1.</_>
        <_>
          8 24 9 6 2.</_></rects>
      <tilted>0</tilted></_>
    <_>
      <rects>
        <_>
          9 0 9 10 -1.</_>
        <_>
          12 0 3 10 3.</_></rects>
      <tilted>0</tilted></_>
    <_>
      <rects>
        <_>
          9 0 21 24 -1.</_>
        <_>
          9 12 21 12 2.</_></rects>
      <tilted>0</tilted></_>
    <_>
      <rects>
        <_>
          9 3 4 10 -1.</_>
        <_>
          9 8 4 5 2.</_></rects>
      <tilted>0</tilted></_>
    <_>
      <rects>
        <_>
          9 4 21 10 -1.</_>
        <_>
          9 9 21 5 2.</_></rects>
      <tilted>0</tilted></_>
    <_>
      <rects>
        <_>
          9 7 16 2 -1.</_>
        <_>
          9 7 8 1 2.</_>
        <_>
          17 8 8 1 2.</_></rects>
      <tilted>0</tilted></_>
    <_>
      <rects>
        <_>
          10 0 3 1 -1.</_>
        <_>
          11 0 1 1 3.</_></rects>
      <tilted>0</tilted></_>
    <_>
      <rects>
        <_>
          10 0 6 9 -1.</_>
        <_>
          10 3 6 3 3.</_></rects>
      <tilted>0</tilted></_>
    <_>
      <rects>
        <_>
          10 0 14 9 -1.</_>
        <_>
          10 3 14 3 3.</_></rects>
      <tilted>0</tilted></_>
    <_>
      <rects>
        <_>
          10 4 9 6 -1.</_>
        <_>
          10 6 9 2 3.</_></rects>
      <tilted>0</tilted></_>
    <_>
      <rects>
        <_>
          10 9 17 21 -1.</_>
        <_>
          10 16 17 7 3.</_></rects>
      <tilted>0</tilted></_>
    <_>
      <rects>
        <_>
          10 23 9 6 -1.</_>
        <_>
          10 25 9 2 3.</_></rects>
      <tilted>0</tilted></_>
    <_>
      <rects>
        <_>
          10 24 17 6 -1.</_>
        <_>
          10 27 17 3 2.</_></rects>
      <tilted>0</tilted></_>
    <_>
      <rects>
        <_>
          11 15 4 2 -1.</_>
        <_>
          11 15 2 1 2.</_>
        <_>
          13 16 2 1 2.</_></rects>
      <tilted>0</tilted></_>
    <_>
      <rects>
        <_>
          12 4 2 2 -1.</_>
        <_>
          12 4 1 1 2.</_>
        <_>
          13 5 1 1 2.</_></rects>
      <tilted>0</tilted></_>
    <_>
      <rects>
        <_>
          12 10 3 2 -1.</_>
        <_>
          13 10 1 2 3.</_></rects>
      <tilted>0</tilted></_>
    <_>
      <rects>
        <_>
          12 14 3 3 -1.</_>
        <_>
          13 14 1 3 3.</_></rects>
      <tilted>0</tilted></_>
    <_>
      <rects>
        <_>
          12 24 13 6 -1.</_>
        <_>
          12 26 13 2 3.</_></rects>
      <tilted>0</tilted></_>
    <_>
      <rects>
        <_>
          12 26 3 4 -1.</_>
        <_>
          13 26 1 4 3.</_></rects>
      <tilted>0</tilted></_>
    <_>
      <rects>
        <_>
          13 2 6 2 -1.</_>
        <_>
          13 2 3 1 2.</_>
        <_>
          16 3 3 1 2.</_></rects>
      <tilted>0</tilted></_>
    <_>
      <rects>
        <_>
          13 3 1 12 -1.</_>
        <_>
          13 9 1 6 2.</_></rects>
      <tilted>0</tilted></_>
    <_>
      <rects>
        <_>
          13 20 10 10 -1.</_>
        <_>
          13 20 5 5 2.</_>
        <_>
          18 25 5 5 2.</_></rects>
      <tilted>0</tilted></_>
    <_>
      <rects>
        <_>
          14 1 6 2 -1.</_>
        <_>
          17 1 3 2 2.</_></rects>
      <tilted>0</tilted></_>
    <_>
      <rects>
        <_>
          14 2 4 3 -1.</_>
        <_>
          14 3 4 1 3.</_></rects>
      <tilted>0</tilted></_>
    <_>
      <rects>
        <_>
          14 8 1 12 -1.</_>
        <_>
          14 14 1 6 2.</_></rects>
      <tilted>0</tilted></_>
    <_>
      <rects>
        <_>
          14 12 1 3 -1.</_>
        <_>
          14 13 1 1 3.</_></rects>
      <tilted>0</tilted></_>
    <_>
      <rects>
        <_>
          14 24 16 2 -1.</_>
        <_>
          14 25 16 1 2.</_></rects>
      <tilted>0</tilted></_>
    <_>
      <rects>
        <_>
          15 0 11 30 -1.</_>
        <_>
          15 10 11 10 3.</_></rects>
      <tilted>0</tilted></_>
    <_>
      <rects>
        <_>
          15 5 2 9 -1.</_>
        <_>
          15 8 2 3 3.</_></rects>
      <tilted>0</tilted></_>
    <_>
      <rects>
        <_>
          15 9 5 6 -1.</_>
        <_>
          15 12 5 3 2.</_></rects>
      <tilted>0</tilted></_>
    <_>
      <rects>
        <_>
          16 5 12 5 -1.</_>
        <_>
          20 5 4 5 3.</_></rects>
      <tilted>0</tilted></_>
    <_>
      <rects>
        <_>
          16 10 3 1 -1.</_>
        <_>
          17 10 1 1 3.</_></rects>
      <tilted>0</tilted></_>
    <_>
      <rects>
        <_>
          16 10 5 9 -1.</_>
        <_>
          16 13 5 3 3.</_></rects>
      <tilted>0</tilted></_>
    <_>
      <rects>
        <_>
          16 16 2 3 -1.</_>
        <_>
          16 17 2 1 3.</_></rects>
      <tilted>0</tilted></_>
    <_>
      <rects>
        <_>
          16 17 14 6 -1.</_>
        <_>
          16 19 14 2 3.</_></rects>
      <tilted>0</tilted></_>
    <_>
      <rects>
        <_>
          16 21 2 2 -1.</_>
        <_>
          16 21 1 1 2.</_>
        <_>
          17 22 1 1 2.</_></rects>
      <tilted>0</tilted></_>
    <_>
      <rects>
        <_>
          17 2 3 7 -1.</_>
        <_>
          18 2 1 7 3.</_></rects>
      <tilted>0</tilted></_>
    <_>
      <rects>
        <_>
          18 0 4 1 -1.</_>
        <_>
          20 0 2 1 2.</_></rects>
      <tilted>0</tilted></_>
    <_>
      <rects>
        <_>
          18 0 6 3 -1.</_>
        <_>
          20 0 2 3 3.</_></rects>
      <tilted>0</tilted></_>
    <_>
      <rects>
        <_>
          18 6 12 14 -1.</_>
        <_>
          18 13 12 7 2.</_></rects>
      <tilted>0</tilted></_>
    <_>
      <rects>
        <_>
          18 11 2 8 -1.</_>
        <_>
          18 11 1 4 2.</_>
        <_>
          19 15 1 4 2.</_></rects>
      <tilted>0</tilted></_>
    <_>
      <rects>
        <_>
          18 18 1 12 -1.</_>
        <_>
          18 24 1 6 2.</_></rects>
      <tilted>0</tilted></_>
    <_>
      <rects>
        <_>
          20 0 2 3 -1.</_>
        <_>
          21 0 1 3 2.</_></rects>
      <tilted>0</tilted></_>
    <_>
      <rects>
        <_>
          20 19 9 9 -1.</_>
        <_>
          20 22 9 3 3.</_></rects>
      <tilted>0</tilted></_>
    <_>
      <rects>
        <_>
          21 0 1 12 -1.</_>
        <_>
          21 4 1 4 3.</_></rects>
      <tilted>0</tilted></_>
    <_>
      <rects>
        <_>
          21 5 8 16 -1.</_>
        <_>
          21 13 8 8 2.</_></rects>
      <tilted>0</tilted></_>
    <_>
      <rects>
        <_>
          21 15 8 6 -1.</_>
        <_>
          21 17 8 2 3.</_></rects>
      <tilted>0</tilted></_>
    <_>
      <rects>
        <_>
          21 16 3 2 -1.</_>
        <_>
          22 16 1 2 3.</_></rects>
      <tilted>0</tilted></_>
    <_>
      <rects>
        <_>
          21 19 3 3 -1.</_>
        <_>
          21 20 3 1 3.</_></rects>
      <tilted>0</tilted></_>
    <_>
      <rects>
        <_>
          21 21 4 2 -1.</_>
        <_>
          21 21 2 1 2.</_>
        <_>
          23 22 2 1 2.</_></rects>
      <tilted>0</tilted></_>
    <_>
      <rects>
        <_>
          21 26 8 4 -1.</_>
        <_>
          21 26 4 2 2.</_>
        <_>
          25 28 4 2 2.</_></rects>
      <tilted>0</tilted></_>
    <_>
      <rects>
        <_>
          21 28 1 2 -1.</_>
        <_>
          21 29 1 1 2.</_></rects>
      <tilted>0</tilted></_>
    <_>
      <rects>
        <_>
          21 28 2 2 -1.</_>
        <_>
          21 28 1 1 2.</_>
        <_>
          22 29 1 1 2.</_></rects>
      <tilted>0</tilted></_>
    <_>
      <rects>
        <_>
          22 1 8 11 -1.</_>
        <_>
          26 1 4 11 2.</_></rects>
      <tilted>0</tilted></_>
    <_>
      <rects>
        <_>
          22 11 8 18 -1.</_>
        <_>
          22 11 4 9 2.</_>
        <_>
          26 20 4 9 2.</_></rects>
      <tilted>0</tilted></_>
    <_>
      <rects>
        <_>
          22 19 2 2 -1.</_>
        <_>
          22 19 1 1 2.</_>
        <_>
          23 20 1 1 2.</_></rects>
      <tilted>0</tilted></_>
    <_>
      <rects>
        <_>
          22 20 4 2 -1.</_>
        <_>
          22 20 2 1 2.</_>
        <_>
          24 21 2 1 2.</_></rects>
      <tilted>0</tilted></_>
    <_>
      <rects>
        <_>
          22 23 8 6 -1.</_>
        <_>
          22 23 4 3 2.</_>
        <_>
          26 26 4 3 2.</_></rects>
      <tilted>0</tilted></_>
    <_>
      <rects>
        <_>
          23 7 3 3 -1.</_>
        <_>
          23 8 3 1 3.</_></rects>
      <tilted>0</tilted></_>
    <_>
      <rects>
        <_>
          23 18 6 12 -1.</_>
        <_>
          23 18 3 6 2.</_>
        <_>
          26 24 3 6 2.</_></rects>
      <tilted>0</tilted></_>
    <_>
      <rects>
        <_>
          24 9 2 2 -1.</_>
        <_>
          24 9 1 1 2.</_>
        <_>
          25 10 1 1 2.</_></rects>
      <tilted>0</tilted></_>
    <_>
      <rects>
        <_>
          24 11 6 9 -1.</_>
        <_>
          27 11 3 9 2.</_></rects>
      <tilted>0</tilted></_>
    <_>
      <rects>
        <_>
          24 14 3 3 -1.</_>
        <_>
          25 14 1 3 3.</_></rects>
      <tilted>0</tilted></_>
    <_>
      <rects>
        <_>
          25 2 3 1 -1.</_>
        <_>
          26 2 1 1 3.</_></rects>
      <tilted>0</tilted></_>
    <_>
      <rects>
        <_>
          25 4 3 13 -1.</_>
        <_>
          26 4 1 13 3.</_></rects>
      <tilted>0</tilted></_>
    <_>
      <rects>
        <_>
          25 14 5 9 -1.</_>
        <_>
          25 17 5 3 3.</_></rects>
      <tilted>0</tilted></_>
    <_>
      <rects>
        <_>
          25 21 1 8 -1.</_>
        <_>
          25 25 1 4 2.</_></rects>
      <tilted>0</tilted></_>
    <_>
      <rects>
        <_>
          26 0 2 2 -1.</_>
        <_>
          26 0 1 1 2.</_>
        <_>
          27 1 1 1 2.</_></rects>
      <tilted>0</tilted></_>
    <_>
      <rects>
        <_>
          26 10 4 9 -1.</_>
        <_>
          28 10 2 9 2.</_></rects>
      <tilted>0</tilted></_>
    <_>
      <rects>
        <_>
          26 11 3 3 -1.</_>
        <_>
          27 11 1 3 3.</_></rects>
      <tilted>0</tilted></_>
    <_>
      <rects>
        <_>
          26 12 4 16 -1.</_>
        <_>
          26 12 2 8 2.</_>
        <_>
          28 20 2 8 2.</_></rects>
      <tilted>0</tilted></_>
    <_>
      <rects>
        <_>
          26 14 4 2 -1.</_>
        <_>
          26 14 2 1 2.</_>
        <_>
          28 15 2 1 2.</_></rects>
      <tilted>0</tilted></_>
    <_>
      <rects>
        <_>
          26 17 3 4 -1.</_>
        <_>
          27 17 1 4 3.</_></rects>
      <tilted>0</tilted></_>
    <_>
      <rects>
        <_>
          26 28 4 2 -1.</_>
        <_>
          26 28 2 1 2.</_>
        <_>
          28 29 2 1 2.</_></rects>
      <tilted>0</tilted></_>
    <_>
      <rects>
        <_>
          27 0 2 21 -1.</_>
        <_>
          28 0 1 21 2.</_></rects>
      <tilted>0</tilted></_>
    <_>
      <rects>
        <_>
          27 8 2 12 -1.</_>
        <_>
          28 8 1 12 2.</_></rects>
      <tilted>0</tilted></_>
    <_>
      <rects>
        <_>
          27 16 3 8 -1.</_>
        <_>
          27 20 3 4 2.</_></rects>
      <tilted>0</tilted></_>
    <_>
      <rects>
        <_>
          29 8 1 10 -1.</_>
        <_>
          29 13 1 5 2.</_></rects>
      <tilted>0</tilted></_>
    <_>
      <rects>
        <_>
          29 13 1 6 -1.</_>
        <_>
          29 16 1 3 2.</_></rects>
      <tilted>0</tilted></_>
    <_>
      <rects>
        <_>
          29 14 1 4 -1.</_>
        <_>
          29 16 1 2 2.</_></rects>
      <tilted>0</tilted></_>
    <_>
      <rects>
        <_>
          29 20 1 4 -1.</_>
        <_>
          29 22 1 2 2.</_></rects>
      <tilted>0</tilted></_>
    <_>
      <rects>
        <_>
          29 24 1 6 -1.</_>
        <_>
          29 27 1 3 2.</_></rects>
      <tilted>0</tilted></_></features></cascade>
</opencv_storage>
